<?xml version="1.0"?>
<opencv_storage>
<stage18>
  <maxWeakCount>100</maxWeakCount>
  <stageThreshold>100.</stageThreshold>
  <weakClassifiers>
    <_>
      <internalNodes>
        0 -1 1 1.4363892842084169e-03</internalNodes>
      <leafValues>
        1. -1.</leafValues></_>
    <_>
      <internalNodes>
        0 -1 1 1.4363892842084169e-03</internalNodes>
      <leafValues>
        1. -1.</leafValues></_>
    <_>
      <internalNodes>
        0 -1 1 1.4363892842084169e-03</internalNodes>
      <leafValues>
        1. -1.</leafValues></_>
    <_>
      <internalNodes>
        0 -1 1 1.4363892842084169e-03</internalNodes>
      <leafValues>
        1. -1.</leafValues></_>
    <_>
      <internalNodes>
        0 -1 1 1.4363892842084169e-03</internalNodes>
      <leafValues>
        1. -1.</leafValues></_>
    <_>
      <internalNodes>
        0 -1 1 1.4363892842084169e-03</internalNodes>
      <leafValues>
        1. -1.</leafValues></_>
    <_>
      <internalNodes>
        0 -1 1 1.4363892842084169e-03</internalNodes>
      <leafValues>
        1. -1.</leafValues></_>
    <_>
      <internalNodes>
        0 -1 1 1.4363892842084169e-03</internalNodes>
      <leafValues>
        1. -1.</leafValues></_>
    <_>
      <internalNodes>
        0 -1 1 1.4363892842084169e-03</internalNodes>
      <leafValues>
        1. -1.</leafValues></_>
    <_>
      <internalNodes>
        0 -1 1 1.4363892842084169e-03</internalNodes>
      <leafValues>
        1. -1.</leafValues></_>
    <_>
      <internalNodes>
        0 -1 1 1.4363892842084169e-03</internalNodes>
      <leafValues>
        1. -1.</leafValues></_>
    <_>
      <internalNodes>
        0 -1 1 1.4363892842084169e-03</internalNodes>
      <leafValues>
        1. -1.</leafValues></_>
    <_>
      <internalNodes>
        0 -1 1 1.4363892842084169e-03</internalNodes>
      <leafValues>
        1. -1.</leafValues></_>
    <_>
      <internalNodes>
        0 -1 1 1.4363892842084169e-03</internalNodes>
      <leafValues>
        1. -1.</leafValues></_>
    <_>
      <internalNodes>
        0 -1 1 1.4363892842084169e-03</internalNodes>
      <leafValues>
        1. -1.</leafValues></_>
    <_>
      <internalNodes>
        0 -1 1 1.4363892842084169e-03</internalNodes>
      <leafValues>
        1. -1.</leafValues></_>
    <_>
      <internalNodes>
        0 -1 1 1.4363892842084169e-03</internalNodes>
      <leafValues>
        1. -1.</leafValues></_>
    <_>
      <internalNodes>
        0 -1 1 1.4363892842084169e-03</internalNodes>
      <leafValues>
        1. -1.</leafValues></_>
    <_>
      <internalNodes>
        0 -1 1 1.4363892842084169e-03</internalNodes>
      <leafValues>
        1. -1.</leafValues></_>
    <_>
      <internalNodes>
        0 -1 1 1.4363892842084169e-03</internalNodes>
      <leafValues>
        1. -1.</leafValues></_>
    <_>
      <internalNodes>
        0 -1 1 1.4363892842084169e-03</internalNodes>
      <leafValues>
        1. -1.</leafValues></_>
    <_>
      <internalNodes>
        0 -1 1 1.4363892842084169e-03</internalNodes>
      <leafValues>
        1. -1.</leafValues></_>
    <_>
      <internalNodes>
        0 -1 1 1.4363892842084169e-03</internalNodes>
      <leafValues>
        1. -1.</leafValues></_>
    <_>
      <internalNodes>
        0 -1 1 1.4363892842084169e-03</internalNodes>
      <leafValues>
        1. -1.</leafValues></_>
    <_>
      <internalNodes>
        0 -1 1 1.4363892842084169e-03</internalNodes>
      <leafValues>
        1. -1.</leafValues></_>
    <_>
      <internalNodes>
        0 -1 1 1.4363892842084169e-03</internalNodes>
      <leafValues>
        1. -1.</leafValues></_>
    <_>
      <internalNodes>
        0 -1 1 1.4363892842084169e-03</internalNodes>
      <leafValues>
        1. -1.</leafValues></_>
    <_>
      <internalNodes>
        0 -1 1 1.4363892842084169e-03</internalNodes>
      <leafValues>
        1. -1.</leafValues></_>
    <_>
      <internalNodes>
        0 -1 1 1.4363892842084169e-03</internalNodes>
      <leafValues>
        1. -1.</leafValues></_>
    <_>
      <internalNodes>
        0 -1 1 1.4363892842084169e-03</internalNodes>
      <leafValues>
        1. -1.</leafValues></_>
    <_>
      <internalNodes>
        0 -1 1 1.4363892842084169e-03</internalNodes>
      <leafValues>
        1. -1.</leafValues></_>
    <_>
      <internalNodes>
        0 -1 1 1.4363892842084169e-03</internalNodes>
      <leafValues>
        1. -1.</leafValues></_>
    <_>
      <internalNodes>
        0 -1 1 1.4363892842084169e-03</internalNodes>
      <leafValues>
        1. -1.</leafValues></_>
    <_>
      <internalNodes>
        0 -1 1 1.4363892842084169e-03</internalNodes>
      <leafValues>
        1. -1.</leafValues></_>
    <_>
      <internalNodes>
        0 -1 1 1.4363892842084169e-03</internalNodes>
      <leafValues>
        1. -1.</leafValues></_>
    <_>
      <internalNodes>
        0 -1 1 1.4363892842084169e-03</internalNodes>
      <leafValues>
        1. -1.</leafValues></_>
    <_>
      <internalNodes>
        0 -1 1 1.4363892842084169e-03</internalNodes>
      <leafValues>
        1. -1.</leafValues></_>
    <_>
      <internalNodes>
        0 -1 1 1.4363892842084169e-03</internalNodes>
      <leafValues>
        1. -1.</leafValues></_>
    <_>
      <internalNodes>
        0 -1 1 1.4363892842084169e-03</internalNodes>
      <leafValues>
        1. -1.</leafValues></_>
    <_>
      <internalNodes>
        0 -1 1 1.4363892842084169e-03</internalNodes>
      <leafValues>
        1. -1.</leafValues></_>
    <_>
      <internalNodes>
        0 -1 1 1.4363892842084169e-03</internalNodes>
      <leafValues>
        1. -1.</leafValues></_>
    <_>
      <internalNodes>
        0 -1 1 1.4363892842084169e-03</internalNodes>
      <leafValues>
        1. -1.</leafValues></_>
    <_>
      <internalNodes>
        0 -1 1 1.4363892842084169e-03</internalNodes>
      <leafValues>
        1. -1.</leafValues></_>
    <_>
      <internalNodes>
        0 -1 1 1.4363892842084169e-03</internalNodes>
      <leafValues>
        1. -1.</leafValues></_>
    <_>
      <internalNodes>
        0 -1 1 1.4363892842084169e-03</internalNodes>
      <leafValues>
        1. -1.</leafValues></_>
    <_>
      <internalNodes>
        0 -1 1 1.4363892842084169e-03</internalNodes>
      <leafValues>
        1. -1.</leafValues></_>
    <_>
      <internalNodes>
        0 -1 1 1.4363892842084169e-03</internalNodes>
      <leafValues>
        1. -1.</leafValues></_>
    <_>
      <internalNodes>
        0 -1 1 1.4363892842084169e-03</internalNodes>
      <leafValues>
        1. -1.</leafValues></_>
    <_>
      <internalNodes>
        0 -1 1 1.4363892842084169e-03</internalNodes>
      <leafValues>
        1. -1.</leafValues></_>
    <_>
      <internalNodes>
        0 -1 1 1.4363892842084169e-03</internalNodes>
      <leafValues>
        1. -1.</leafValues></_>
    <_>
      <internalNodes>
        0 -1 1 1.4363892842084169e-03</internalNodes>
      <leafValues>
        1. -1.</leafValues></_>
    <_>
      <internalNodes>
        0 -1 1 1.4363892842084169e-03</internalNodes>
      <leafValues>
        1. -1.</leafValues></_>
    <_>
      <internalNodes>
        0 -1 1 1.4363892842084169e-03</internalNodes>
      <leafValues>
        1. -1.</leafValues></_>
    <_>
      <internalNodes>
        0 -1 1 1.4363892842084169e-03</internalNodes>
      <leafValues>
        1. -1.</leafValues></_>
    <_>
      <internalNodes>
        0 -1 1 1.4363892842084169e-03</internalNodes>
      <leafValues>
        1. -1.</leafValues></_>
    <_>
      <internalNodes>
        0 -1 1 1.4363892842084169e-03</internalNodes>
      <leafValues>
        1. -1.</leafValues></_>
    <_>
      <internalNodes>
        0 -1 1 1.4363892842084169e-03</internalNodes>
      <leafValues>
        1. -1.</leafValues></_>
    <_>
      <internalNodes>
        0 -1 1 1.4363892842084169e-03</internalNodes>
      <leafValues>
        1. -1.</leafValues></_>
    <_>
      <internalNodes>
        0 -1 1 1.4363892842084169e-03</internalNodes>
      <leafValues>
        1. -1.</leafValues></_>
    <_>
      <internalNodes>
        0 -1 1 1.4363892842084169e-03</internalNodes>
      <leafValues>
        1. -1.</leafValues></_>
    <_>
      <internalNodes>
        0 -1 1 1.4363892842084169e-03</internalNodes>
      <leafValues>
        1. -1.</leafValues></_>
    <_>
      <internalNodes>
        0 -1 1 1.4363892842084169e-03</internalNodes>
      <leafValues>
        1. -1.</leafValues></_>
    <_>
      <internalNodes>
        0 -1 1 1.4363892842084169e-03</internalNodes>
      <leafValues>
        1. -1.</leafValues></_>
    <_>
      <internalNodes>
        0 -1 1 1.4363892842084169e-03</internalNodes>
      <leafValues>
        1. -1.</leafValues></_>
    <_>
      <internalNodes>
        0 -1 1 1.4363892842084169e-03</internalNodes>
      <leafValues>
        1. -1.</leafValues></_>
    <_>
      <internalNodes>
        0 -1 1 1.4363892842084169e-03</internalNodes>
      <leafValues>
        1. -1.</leafValues></_>
    <_>
      <internalNodes>
        0 -1 1 1.4363892842084169e-03</internalNodes>
      <leafValues>
        1. -1.</leafValues></_>
    <_>
      <internalNodes>
        0 -1 1 1.4363892842084169e-03</internalNodes>
      <leafValues>
        1. -1.</leafValues></_>
    <_>
      <internalNodes>
        0 -1 1 1.4363892842084169e-03</internalNodes>
      <leafValues>
        1. -1.</leafValues></_>
    <_>
      <internalNodes>
        0 -1 1 1.4363892842084169e-03</internalNodes>
      <leafValues>
        1. -1.</leafValues></_>
    <_>
      <internalNodes>
        0 -1 1 1.4363892842084169e-03</internalNodes>
      <leafValues>
        1. -1.</leafValues></_>
    <_>
      <internalNodes>
        0 -1 1 1.4363892842084169e-03</internalNodes>
      <leafValues>
        1. -1.</leafValues></_>
    <_>
      <internalNodes>
        0 -1 1 1.4363892842084169e-03</internalNodes>
      <leafValues>
        1. -1.</leafValues></_>
    <_>
      <internalNodes>
        0 -1 1 1.4363892842084169e-03</internalNodes>
      <leafValues>
        1. -1.</leafValues></_>
    <_>
      <internalNodes>
        0 -1 1 1.4363892842084169e-03</internalNodes>
      <leafValues>
        1. -1.</leafValues></_>
    <_>
      <internalNodes>
        0 -1 1 1.4363892842084169e-03</internalNodes>
      <leafValues>
        1. -1.</leafValues></_>
    <_>
      <internalNodes>
        0 -1 1 1.4363892842084169e-03</internalNodes>
      <leafValues>
        1. -1.</leafValues></_>
    <_>
      <internalNodes>
        0 -1 1 1.4363892842084169e-03</internalNodes>
      <leafValues>
        1. -1.</leafValues></_>
    <_>
      <internalNodes>
        0 -1 1 1.4363892842084169e-03</internalNodes>
      <leafValues>
        1. -1.</leafValues></_>
    <_>
      <internalNodes>
        0 -1 1 1.4363892842084169e-03</internalNodes>
      <leafValues>
        1. -1.</leafValues></_>
    <_>
      <internalNodes>
        0 -1 1 1.4363892842084169e-03</internalNodes>
      <leafValues>
        1. -1.</leafValues></_>
    <_>
      <internalNodes>
        0 -1 1 1.4363892842084169e-03</internalNodes>
      <leafValues>
        1. -1.</leafValues></_>
    <_>
      <internalNodes>
        0 -1 1 1.4363892842084169e-03</internalNodes>
      <leafValues>
        1. -1.</leafValues></_>
    <_>
      <internalNodes>
        0 -1 1 1.4363892842084169e-03</internalNodes>
      <leafValues>
        1. -1.</leafValues></_>
    <_>
      <internalNodes>
        0 -1 1 1.4363892842084169e-03</internalNodes>
      <leafValues>
        1. -1.</leafValues></_>
    <_>
      <internalNodes>
        0 -1 1 1.4363892842084169e-03</internalNodes>
      <leafValues>
        1. -1.</leafValues></_>
    <_>
      <internalNodes>
        0 -1 1 1.4363892842084169e-03</internalNodes>
      <leafValues>
        1. -1.</leafValues></_>
    <_>
      <internalNodes>
        0 -1 1 1.4363892842084169e-03</internalNodes>
      <leafValues>
        1. -1.</leafValues></_>
    <_>
      <internalNodes>
        0 -1 1 1.4363892842084169e-03</internalNodes>
      <leafValues>
        1. -1.</leafValues></_>
    <_>
      <internalNodes>
        0 -1 1 1.4363892842084169e-03</internalNodes>
      <leafValues>
        1. -1.</leafValues></_>
    <_>
      <internalNodes>
        0 -1 1 1.4363892842084169e-03</internalNodes>
      <leafValues>
        1. -1.</leafValues></_>
    <_>
      <internalNodes>
        0 -1 1 1.4363892842084169e-03</internalNodes>
      <leafValues>
        1. -1.</leafValues></_>
    <_>
      <internalNodes>
        0 -1 1 1.4363892842084169e-03</internalNodes>
      <leafValues>
        1. -1.</leafValues></_>
    <_>
      <internalNodes>
        0 -1 1 1.4363892842084169e-03</internalNodes>
      <leafValues>
        1. -1.</leafValues></_>
    <_>
      <internalNodes>
        0 -1 1 1.4363892842084169e-03</internalNodes>
      <leafValues>
        1. -1.</leafValues></_>
    <_>
      <internalNodes>
        0 -1 1 1.4363892842084169e-03</internalNodes>
      <leafValues>
        1. -1.</leafValues></_>
    <_>
      <internalNodes>
        0 -1 1 1.4363892842084169e-03</internalNodes>
      <leafValues>
        1. -1.</leafValues></_>
    <_>
      <internalNodes>
        0 -1 1 1.4363892842084169e-03</internalNodes>
      <leafValues>
        1. -1.</leafValues></_>
    <_>
      <internalNodes>
        0 -1 1 1.4363892842084169e-03</internalNodes>
      <leafValues>
        1. -1.</leafValues></_>
    <_>
      <internalNodes>
        0 -1 1 1.4363892842084169e-03</internalNodes>
      <leafValues>
        1. -1.</leafValues></_></weakClassifiers></stage18>
</opencv_storage>
