<?xml version="1.0"?>
<opencv_storage>
<stage5>
  <maxWeakCount>100</maxWeakCount>
  <stageThreshold>100.</stageThreshold>
  <weakClassifiers>
    <_>
      <internalNodes>
        0 -1 2 2.9999378602951765e-03</internalNodes>
      <leafValues>
        1. -1.</leafValues></_>
    <_>
      <internalNodes>
        0 -1 2 2.9999378602951765e-03</internalNodes>
      <leafValues>
        1. -1.</leafValues></_>
    <_>
      <internalNodes>
        0 -1 2 2.9999378602951765e-03</internalNodes>
      <leafValues>
        1. -1.</leafValues></_>
    <_>
      <internalNodes>
        0 -1 2 2.9999378602951765e-03</internalNodes>
      <leafValues>
        1. -1.</leafValues></_>
    <_>
      <internalNodes>
        0 -1 2 2.9999378602951765e-03</internalNodes>
      <leafValues>
        1. -1.</leafValues></_>
    <_>
      <internalNodes>
        0 -1 2 2.9999378602951765e-03</internalNodes>
      <leafValues>
        1. -1.</leafValues></_>
    <_>
      <internalNodes>
        0 -1 2 2.9999378602951765e-03</internalNodes>
      <leafValues>
        1. -1.</leafValues></_>
    <_>
      <internalNodes>
        0 -1 2 2.9999378602951765e-03</internalNodes>
      <leafValues>
        1. -1.</leafValues></_>
    <_>
      <internalNodes>
        0 -1 2 2.9999378602951765e-03</internalNodes>
      <leafValues>
        1. -1.</leafValues></_>
    <_>
      <internalNodes>
        0 -1 2 2.9999378602951765e-03</internalNodes>
      <leafValues>
        1. -1.</leafValues></_>
    <_>
      <internalNodes>
        0 -1 2 2.9999378602951765e-03</internalNodes>
      <leafValues>
        1. -1.</leafValues></_>
    <_>
      <internalNodes>
        0 -1 2 2.9999378602951765e-03</internalNodes>
      <leafValues>
        1. -1.</leafValues></_>
    <_>
      <internalNodes>
        0 -1 2 2.9999378602951765e-03</internalNodes>
      <leafValues>
        1. -1.</leafValues></_>
    <_>
      <internalNodes>
        0 -1 2 2.9999378602951765e-03</internalNodes>
      <leafValues>
        1. -1.</leafValues></_>
    <_>
      <internalNodes>
        0 -1 2 2.9999378602951765e-03</internalNodes>
      <leafValues>
        1. -1.</leafValues></_>
    <_>
      <internalNodes>
        0 -1 2 2.9999378602951765e-03</internalNodes>
      <leafValues>
        1. -1.</leafValues></_>
    <_>
      <internalNodes>
        0 -1 2 2.9999378602951765e-03</internalNodes>
      <leafValues>
        1. -1.</leafValues></_>
    <_>
      <internalNodes>
        0 -1 2 2.9999378602951765e-03</internalNodes>
      <leafValues>
        1. -1.</leafValues></_>
    <_>
      <internalNodes>
        0 -1 2 2.9999378602951765e-03</internalNodes>
      <leafValues>
        1. -1.</leafValues></_>
    <_>
      <internalNodes>
        0 -1 2 2.9999378602951765e-03</internalNodes>
      <leafValues>
        1. -1.</leafValues></_>
    <_>
      <internalNodes>
        0 -1 2 2.9999378602951765e-03</internalNodes>
      <leafValues>
        1. -1.</leafValues></_>
    <_>
      <internalNodes>
        0 -1 2 2.9999378602951765e-03</internalNodes>
      <leafValues>
        1. -1.</leafValues></_>
    <_>
      <internalNodes>
        0 -1 2 2.9999378602951765e-03</internalNodes>
      <leafValues>
        1. -1.</leafValues></_>
    <_>
      <internalNodes>
        0 -1 2 2.9999378602951765e-03</internalNodes>
      <leafValues>
        1. -1.</leafValues></_>
    <_>
      <internalNodes>
        0 -1 2 2.9999378602951765e-03</internalNodes>
      <leafValues>
        1. -1.</leafValues></_>
    <_>
      <internalNodes>
        0 -1 2 2.9999378602951765e-03</internalNodes>
      <leafValues>
        1. -1.</leafValues></_>
    <_>
      <internalNodes>
        0 -1 2 2.9999378602951765e-03</internalNodes>
      <leafValues>
        1. -1.</leafValues></_>
    <_>
      <internalNodes>
        0 -1 2 2.9999378602951765e-03</internalNodes>
      <leafValues>
        1. -1.</leafValues></_>
    <_>
      <internalNodes>
        0 -1 2 2.9999378602951765e-03</internalNodes>
      <leafValues>
        1. -1.</leafValues></_>
    <_>
      <internalNodes>
        0 -1 2 2.9999378602951765e-03</internalNodes>
      <leafValues>
        1. -1.</leafValues></_>
    <_>
      <internalNodes>
        0 -1 2 2.9999378602951765e-03</internalNodes>
      <leafValues>
        1. -1.</leafValues></_>
    <_>
      <internalNodes>
        0 -1 2 2.9999378602951765e-03</internalNodes>
      <leafValues>
        1. -1.</leafValues></_>
    <_>
      <internalNodes>
        0 -1 2 2.9999378602951765e-03</internalNodes>
      <leafValues>
        1. -1.</leafValues></_>
    <_>
      <internalNodes>
        0 -1 2 2.9999378602951765e-03</internalNodes>
      <leafValues>
        1. -1.</leafValues></_>
    <_>
      <internalNodes>
        0 -1 2 2.9999378602951765e-03</internalNodes>
      <leafValues>
        1. -1.</leafValues></_>
    <_>
      <internalNodes>
        0 -1 2 2.9999378602951765e-03</internalNodes>
      <leafValues>
        1. -1.</leafValues></_>
    <_>
      <internalNodes>
        0 -1 2 2.9999378602951765e-03</internalNodes>
      <leafValues>
        1. -1.</leafValues></_>
    <_>
      <internalNodes>
        0 -1 2 2.9999378602951765e-03</internalNodes>
      <leafValues>
        1. -1.</leafValues></_>
    <_>
      <internalNodes>
        0 -1 2 2.9999378602951765e-03</internalNodes>
      <leafValues>
        1. -1.</leafValues></_>
    <_>
      <internalNodes>
        0 -1 2 2.9999378602951765e-03</internalNodes>
      <leafValues>
        1. -1.</leafValues></_>
    <_>
      <internalNodes>
        0 -1 2 2.9999378602951765e-03</internalNodes>
      <leafValues>
        1. -1.</leafValues></_>
    <_>
      <internalNodes>
        0 -1 2 2.9999378602951765e-03</internalNodes>
      <leafValues>
        1. -1.</leafValues></_>
    <_>
      <internalNodes>
        0 -1 2 2.9999378602951765e-03</internalNodes>
      <leafValues>
        1. -1.</leafValues></_>
    <_>
      <internalNodes>
        0 -1 2 2.9999378602951765e-03</internalNodes>
      <leafValues>
        1. -1.</leafValues></_>
    <_>
      <internalNodes>
        0 -1 2 2.9999378602951765e-03</internalNodes>
      <leafValues>
        1. -1.</leafValues></_>
    <_>
      <internalNodes>
        0 -1 2 2.9999378602951765e-03</internalNodes>
      <leafValues>
        1. -1.</leafValues></_>
    <_>
      <internalNodes>
        0 -1 2 2.9999378602951765e-03</internalNodes>
      <leafValues>
        1. -1.</leafValues></_>
    <_>
      <internalNodes>
        0 -1 2 2.9999378602951765e-03</internalNodes>
      <leafValues>
        1. -1.</leafValues></_>
    <_>
      <internalNodes>
        0 -1 2 2.9999378602951765e-03</internalNodes>
      <leafValues>
        1. -1.</leafValues></_>
    <_>
      <internalNodes>
        0 -1 2 2.9999378602951765e-03</internalNodes>
      <leafValues>
        1. -1.</leafValues></_>
    <_>
      <internalNodes>
        0 -1 2 2.9999378602951765e-03</internalNodes>
      <leafValues>
        1. -1.</leafValues></_>
    <_>
      <internalNodes>
        0 -1 2 2.9999378602951765e-03</internalNodes>
      <leafValues>
        1. -1.</leafValues></_>
    <_>
      <internalNodes>
        0 -1 2 2.9999378602951765e-03</internalNodes>
      <leafValues>
        1. -1.</leafValues></_>
    <_>
      <internalNodes>
        0 -1 2 2.9999378602951765e-03</internalNodes>
      <leafValues>
        1. -1.</leafValues></_>
    <_>
      <internalNodes>
        0 -1 2 2.9999378602951765e-03</internalNodes>
      <leafValues>
        1. -1.</leafValues></_>
    <_>
      <internalNodes>
        0 -1 2 2.9999378602951765e-03</internalNodes>
      <leafValues>
        1. -1.</leafValues></_>
    <_>
      <internalNodes>
        0 -1 2 2.9999378602951765e-03</internalNodes>
      <leafValues>
        1. -1.</leafValues></_>
    <_>
      <internalNodes>
        0 -1 2 2.9999378602951765e-03</internalNodes>
      <leafValues>
        1. -1.</leafValues></_>
    <_>
      <internalNodes>
        0 -1 2 2.9999378602951765e-03</internalNodes>
      <leafValues>
        1. -1.</leafValues></_>
    <_>
      <internalNodes>
        0 -1 2 2.9999378602951765e-03</internalNodes>
      <leafValues>
        1. -1.</leafValues></_>
    <_>
      <internalNodes>
        0 -1 2 2.9999378602951765e-03</internalNodes>
      <leafValues>
        1. -1.</leafValues></_>
    <_>
      <internalNodes>
        0 -1 2 2.9999378602951765e-03</internalNodes>
      <leafValues>
        1. -1.</leafValues></_>
    <_>
      <internalNodes>
        0 -1 2 2.9999378602951765e-03</internalNodes>
      <leafValues>
        1. -1.</leafValues></_>
    <_>
      <internalNodes>
        0 -1 2 2.9999378602951765e-03</internalNodes>
      <leafValues>
        1. -1.</leafValues></_>
    <_>
      <internalNodes>
        0 -1 2 2.9999378602951765e-03</internalNodes>
      <leafValues>
        1. -1.</leafValues></_>
    <_>
      <internalNodes>
        0 -1 2 2.9999378602951765e-03</internalNodes>
      <leafValues>
        1. -1.</leafValues></_>
    <_>
      <internalNodes>
        0 -1 2 2.9999378602951765e-03</internalNodes>
      <leafValues>
        1. -1.</leafValues></_>
    <_>
      <internalNodes>
        0 -1 2 2.9999378602951765e-03</internalNodes>
      <leafValues>
        1. -1.</leafValues></_>
    <_>
      <internalNodes>
        0 -1 2 2.9999378602951765e-03</internalNodes>
      <leafValues>
        1. -1.</leafValues></_>
    <_>
      <internalNodes>
        0 -1 2 2.9999378602951765e-03</internalNodes>
      <leafValues>
        1. -1.</leafValues></_>
    <_>
      <internalNodes>
        0 -1 2 2.9999378602951765e-03</internalNodes>
      <leafValues>
        1. -1.</leafValues></_>
    <_>
      <internalNodes>
        0 -1 2 2.9999378602951765e-03</internalNodes>
      <leafValues>
        1. -1.</leafValues></_>
    <_>
      <internalNodes>
        0 -1 2 2.9999378602951765e-03</internalNodes>
      <leafValues>
        1. -1.</leafValues></_>
    <_>
      <internalNodes>
        0 -1 2 2.9999378602951765e-03</internalNodes>
      <leafValues>
        1. -1.</leafValues></_>
    <_>
      <internalNodes>
        0 -1 2 2.9999378602951765e-03</internalNodes>
      <leafValues>
        1. -1.</leafValues></_>
    <_>
      <internalNodes>
        0 -1 2 2.9999378602951765e-03</internalNodes>
      <leafValues>
        1. -1.</leafValues></_>
    <_>
      <internalNodes>
        0 -1 2 2.9999378602951765e-03</internalNodes>
      <leafValues>
        1. -1.</leafValues></_>
    <_>
      <internalNodes>
        0 -1 2 2.9999378602951765e-03</internalNodes>
      <leafValues>
        1. -1.</leafValues></_>
    <_>
      <internalNodes>
        0 -1 2 2.9999378602951765e-03</internalNodes>
      <leafValues>
        1. -1.</leafValues></_>
    <_>
      <internalNodes>
        0 -1 2 2.9999378602951765e-03</internalNodes>
      <leafValues>
        1. -1.</leafValues></_>
    <_>
      <internalNodes>
        0 -1 2 2.9999378602951765e-03</internalNodes>
      <leafValues>
        1. -1.</leafValues></_>
    <_>
      <internalNodes>
        0 -1 2 2.9999378602951765e-03</internalNodes>
      <leafValues>
        1. -1.</leafValues></_>
    <_>
      <internalNodes>
        0 -1 2 2.9999378602951765e-03</internalNodes>
      <leafValues>
        1. -1.</leafValues></_>
    <_>
      <internalNodes>
        0 -1 2 2.9999378602951765e-03</internalNodes>
      <leafValues>
        1. -1.</leafValues></_>
    <_>
      <internalNodes>
        0 -1 2 2.9999378602951765e-03</internalNodes>
      <leafValues>
        1. -1.</leafValues></_>
    <_>
      <internalNodes>
        0 -1 2 2.9999378602951765e-03</internalNodes>
      <leafValues>
        1. -1.</leafValues></_>
    <_>
      <internalNodes>
        0 -1 2 2.9999378602951765e-03</internalNodes>
      <leafValues>
        1. -1.</leafValues></_>
    <_>
      <internalNodes>
        0 -1 2 2.9999378602951765e-03</internalNodes>
      <leafValues>
        1. -1.</leafValues></_>
    <_>
      <internalNodes>
        0 -1 2 2.9999378602951765e-03</internalNodes>
      <leafValues>
        1. -1.</leafValues></_>
    <_>
      <internalNodes>
        0 -1 2 2.9999378602951765e-03</internalNodes>
      <leafValues>
        1. -1.</leafValues></_>
    <_>
      <internalNodes>
        0 -1 2 2.9999378602951765e-03</internalNodes>
      <leafValues>
        1. -1.</leafValues></_>
    <_>
      <internalNodes>
        0 -1 2 2.9999378602951765e-03</internalNodes>
      <leafValues>
        1. -1.</leafValues></_>
    <_>
      <internalNodes>
        0 -1 2 2.9999378602951765e-03</internalNodes>
      <leafValues>
        1. -1.</leafValues></_>
    <_>
      <internalNodes>
        0 -1 2 2.9999378602951765e-03</internalNodes>
      <leafValues>
        1. -1.</leafValues></_>
    <_>
      <internalNodes>
        0 -1 2 2.9999378602951765e-03</internalNodes>
      <leafValues>
        1. -1.</leafValues></_>
    <_>
      <internalNodes>
        0 -1 2 2.9999378602951765e-03</internalNodes>
      <leafValues>
        1. -1.</leafValues></_>
    <_>
      <internalNodes>
        0 -1 2 2.9999378602951765e-03</internalNodes>
      <leafValues>
        1. -1.</leafValues></_>
    <_>
      <internalNodes>
        0 -1 2 2.9999378602951765e-03</internalNodes>
      <leafValues>
        1. -1.</leafValues></_>
    <_>
      <internalNodes>
        0 -1 2 2.9999378602951765e-03</internalNodes>
      <leafValues>
        1. -1.</leafValues></_>
    <_>
      <internalNodes>
        0 -1 2 2.9999378602951765e-03</internalNodes>
      <leafValues>
        1. -1.</leafValues></_></weakClassifiers></stage5>
</opencv_storage>
