<?xml version="1.0"?>
<opencv_storage>
<stage8>
  <maxWeakCount>100</maxWeakCount>
  <stageThreshold>-100.</stageThreshold>
  <weakClassifiers>
    <_>
      <internalNodes>
        0 -1 2 5.5110041284933686e-04</internalNodes>
      <leafValues>
        1. -1.</leafValues></_>
    <_>
      <internalNodes>
        0 -1 2 5.5110041284933686e-04</internalNodes>
      <leafValues>
        1. -1.</leafValues></_>
    <_>
      <internalNodes>
        0 -1 2 5.5110041284933686e-04</internalNodes>
      <leafValues>
        1. -1.</leafValues></_>
    <_>
      <internalNodes>
        0 -1 2 5.5110041284933686e-04</internalNodes>
      <leafValues>
        1. -1.</leafValues></_>
    <_>
      <internalNodes>
        0 -1 2 5.5110041284933686e-04</internalNodes>
      <leafValues>
        1. -1.</leafValues></_>
    <_>
      <internalNodes>
        0 -1 2 5.5110041284933686e-04</internalNodes>
      <leafValues>
        1. -1.</leafValues></_>
    <_>
      <internalNodes>
        0 -1 2 5.5110041284933686e-04</internalNodes>
      <leafValues>
        1. -1.</leafValues></_>
    <_>
      <internalNodes>
        0 -1 2 5.5110041284933686e-04</internalNodes>
      <leafValues>
        1. -1.</leafValues></_>
    <_>
      <internalNodes>
        0 -1 2 5.5110041284933686e-04</internalNodes>
      <leafValues>
        1. -1.</leafValues></_>
    <_>
      <internalNodes>
        0 -1 2 5.5110041284933686e-04</internalNodes>
      <leafValues>
        1. -1.</leafValues></_>
    <_>
      <internalNodes>
        0 -1 2 5.5110041284933686e-04</internalNodes>
      <leafValues>
        1. -1.</leafValues></_>
    <_>
      <internalNodes>
        0 -1 2 5.5110041284933686e-04</internalNodes>
      <leafValues>
        1. -1.</leafValues></_>
    <_>
      <internalNodes>
        0 -1 2 5.5110041284933686e-04</internalNodes>
      <leafValues>
        1. -1.</leafValues></_>
    <_>
      <internalNodes>
        0 -1 2 5.5110041284933686e-04</internalNodes>
      <leafValues>
        1. -1.</leafValues></_>
    <_>
      <internalNodes>
        0 -1 2 5.5110041284933686e-04</internalNodes>
      <leafValues>
        1. -1.</leafValues></_>
    <_>
      <internalNodes>
        0 -1 2 5.5110041284933686e-04</internalNodes>
      <leafValues>
        1. -1.</leafValues></_>
    <_>
      <internalNodes>
        0 -1 2 5.5110041284933686e-04</internalNodes>
      <leafValues>
        1. -1.</leafValues></_>
    <_>
      <internalNodes>
        0 -1 2 5.5110041284933686e-04</internalNodes>
      <leafValues>
        1. -1.</leafValues></_>
    <_>
      <internalNodes>
        0 -1 2 5.5110041284933686e-04</internalNodes>
      <leafValues>
        1. -1.</leafValues></_>
    <_>
      <internalNodes>
        0 -1 2 5.5110041284933686e-04</internalNodes>
      <leafValues>
        1. -1.</leafValues></_>
    <_>
      <internalNodes>
        0 -1 2 5.5110041284933686e-04</internalNodes>
      <leafValues>
        1. -1.</leafValues></_>
    <_>
      <internalNodes>
        0 -1 2 5.5110041284933686e-04</internalNodes>
      <leafValues>
        1. -1.</leafValues></_>
    <_>
      <internalNodes>
        0 -1 2 5.5110041284933686e-04</internalNodes>
      <leafValues>
        1. -1.</leafValues></_>
    <_>
      <internalNodes>
        0 -1 2 5.5110041284933686e-04</internalNodes>
      <leafValues>
        1. -1.</leafValues></_>
    <_>
      <internalNodes>
        0 -1 2 5.5110041284933686e-04</internalNodes>
      <leafValues>
        1. -1.</leafValues></_>
    <_>
      <internalNodes>
        0 -1 2 5.5110041284933686e-04</internalNodes>
      <leafValues>
        1. -1.</leafValues></_>
    <_>
      <internalNodes>
        0 -1 2 5.5110041284933686e-04</internalNodes>
      <leafValues>
        1. -1.</leafValues></_>
    <_>
      <internalNodes>
        0 -1 2 5.5110041284933686e-04</internalNodes>
      <leafValues>
        1. -1.</leafValues></_>
    <_>
      <internalNodes>
        0 -1 2 5.5110041284933686e-04</internalNodes>
      <leafValues>
        1. -1.</leafValues></_>
    <_>
      <internalNodes>
        0 -1 2 5.5110041284933686e-04</internalNodes>
      <leafValues>
        1. -1.</leafValues></_>
    <_>
      <internalNodes>
        0 -1 2 5.5110041284933686e-04</internalNodes>
      <leafValues>
        1. -1.</leafValues></_>
    <_>
      <internalNodes>
        0 -1 2 5.5110041284933686e-04</internalNodes>
      <leafValues>
        1. -1.</leafValues></_>
    <_>
      <internalNodes>
        0 -1 2 5.5110041284933686e-04</internalNodes>
      <leafValues>
        1. -1.</leafValues></_>
    <_>
      <internalNodes>
        0 -1 2 5.5110041284933686e-04</internalNodes>
      <leafValues>
        1. -1.</leafValues></_>
    <_>
      <internalNodes>
        0 -1 2 5.5110041284933686e-04</internalNodes>
      <leafValues>
        1. -1.</leafValues></_>
    <_>
      <internalNodes>
        0 -1 2 5.5110041284933686e-04</internalNodes>
      <leafValues>
        1. -1.</leafValues></_>
    <_>
      <internalNodes>
        0 -1 2 5.5110041284933686e-04</internalNodes>
      <leafValues>
        1. -1.</leafValues></_>
    <_>
      <internalNodes>
        0 -1 2 5.5110041284933686e-04</internalNodes>
      <leafValues>
        1. -1.</leafValues></_>
    <_>
      <internalNodes>
        0 -1 2 5.5110041284933686e-04</internalNodes>
      <leafValues>
        1. -1.</leafValues></_>
    <_>
      <internalNodes>
        0 -1 2 5.5110041284933686e-04</internalNodes>
      <leafValues>
        1. -1.</leafValues></_>
    <_>
      <internalNodes>
        0 -1 2 5.5110041284933686e-04</internalNodes>
      <leafValues>
        1. -1.</leafValues></_>
    <_>
      <internalNodes>
        0 -1 2 5.5110041284933686e-04</internalNodes>
      <leafValues>
        1. -1.</leafValues></_>
    <_>
      <internalNodes>
        0 -1 2 5.5110041284933686e-04</internalNodes>
      <leafValues>
        1. -1.</leafValues></_>
    <_>
      <internalNodes>
        0 -1 2 5.5110041284933686e-04</internalNodes>
      <leafValues>
        1. -1.</leafValues></_>
    <_>
      <internalNodes>
        0 -1 2 5.5110041284933686e-04</internalNodes>
      <leafValues>
        1. -1.</leafValues></_>
    <_>
      <internalNodes>
        0 -1 2 5.5110041284933686e-04</internalNodes>
      <leafValues>
        1. -1.</leafValues></_>
    <_>
      <internalNodes>
        0 -1 2 5.5110041284933686e-04</internalNodes>
      <leafValues>
        1. -1.</leafValues></_>
    <_>
      <internalNodes>
        0 -1 2 5.5110041284933686e-04</internalNodes>
      <leafValues>
        1. -1.</leafValues></_>
    <_>
      <internalNodes>
        0 -1 2 5.5110041284933686e-04</internalNodes>
      <leafValues>
        1. -1.</leafValues></_>
    <_>
      <internalNodes>
        0 -1 2 5.5110041284933686e-04</internalNodes>
      <leafValues>
        1. -1.</leafValues></_>
    <_>
      <internalNodes>
        0 -1 2 5.5110041284933686e-04</internalNodes>
      <leafValues>
        1. -1.</leafValues></_>
    <_>
      <internalNodes>
        0 -1 2 5.5110041284933686e-04</internalNodes>
      <leafValues>
        1. -1.</leafValues></_>
    <_>
      <internalNodes>
        0 -1 2 5.5110041284933686e-04</internalNodes>
      <leafValues>
        1. -1.</leafValues></_>
    <_>
      <internalNodes>
        0 -1 2 5.5110041284933686e-04</internalNodes>
      <leafValues>
        1. -1.</leafValues></_>
    <_>
      <internalNodes>
        0 -1 2 5.5110041284933686e-04</internalNodes>
      <leafValues>
        1. -1.</leafValues></_>
    <_>
      <internalNodes>
        0 -1 2 5.5110041284933686e-04</internalNodes>
      <leafValues>
        1. -1.</leafValues></_>
    <_>
      <internalNodes>
        0 -1 2 5.5110041284933686e-04</internalNodes>
      <leafValues>
        1. -1.</leafValues></_>
    <_>
      <internalNodes>
        0 -1 2 5.5110041284933686e-04</internalNodes>
      <leafValues>
        1. -1.</leafValues></_>
    <_>
      <internalNodes>
        0 -1 2 5.5110041284933686e-04</internalNodes>
      <leafValues>
        1. -1.</leafValues></_>
    <_>
      <internalNodes>
        0 -1 2 5.5110041284933686e-04</internalNodes>
      <leafValues>
        1. -1.</leafValues></_>
    <_>
      <internalNodes>
        0 -1 2 5.5110041284933686e-04</internalNodes>
      <leafValues>
        1. -1.</leafValues></_>
    <_>
      <internalNodes>
        0 -1 2 5.5110041284933686e-04</internalNodes>
      <leafValues>
        1. -1.</leafValues></_>
    <_>
      <internalNodes>
        0 -1 2 5.5110041284933686e-04</internalNodes>
      <leafValues>
        1. -1.</leafValues></_>
    <_>
      <internalNodes>
        0 -1 2 5.5110041284933686e-04</internalNodes>
      <leafValues>
        1. -1.</leafValues></_>
    <_>
      <internalNodes>
        0 -1 2 5.5110041284933686e-04</internalNodes>
      <leafValues>
        1. -1.</leafValues></_>
    <_>
      <internalNodes>
        0 -1 2 5.5110041284933686e-04</internalNodes>
      <leafValues>
        1. -1.</leafValues></_>
    <_>
      <internalNodes>
        0 -1 2 5.5110041284933686e-04</internalNodes>
      <leafValues>
        1. -1.</leafValues></_>
    <_>
      <internalNodes>
        0 -1 2 5.5110041284933686e-04</internalNodes>
      <leafValues>
        1. -1.</leafValues></_>
    <_>
      <internalNodes>
        0 -1 2 5.5110041284933686e-04</internalNodes>
      <leafValues>
        1. -1.</leafValues></_>
    <_>
      <internalNodes>
        0 -1 2 5.5110041284933686e-04</internalNodes>
      <leafValues>
        1. -1.</leafValues></_>
    <_>
      <internalNodes>
        0 -1 2 5.5110041284933686e-04</internalNodes>
      <leafValues>
        1. -1.</leafValues></_>
    <_>
      <internalNodes>
        0 -1 2 5.5110041284933686e-04</internalNodes>
      <leafValues>
        1. -1.</leafValues></_>
    <_>
      <internalNodes>
        0 -1 2 5.5110041284933686e-04</internalNodes>
      <leafValues>
        1. -1.</leafValues></_>
    <_>
      <internalNodes>
        0 -1 2 5.5110041284933686e-04</internalNodes>
      <leafValues>
        1. -1.</leafValues></_>
    <_>
      <internalNodes>
        0 -1 2 5.5110041284933686e-04</internalNodes>
      <leafValues>
        1. -1.</leafValues></_>
    <_>
      <internalNodes>
        0 -1 2 5.5110041284933686e-04</internalNodes>
      <leafValues>
        1. -1.</leafValues></_>
    <_>
      <internalNodes>
        0 -1 2 5.5110041284933686e-04</internalNodes>
      <leafValues>
        1. -1.</leafValues></_>
    <_>
      <internalNodes>
        0 -1 2 5.5110041284933686e-04</internalNodes>
      <leafValues>
        1. -1.</leafValues></_>
    <_>
      <internalNodes>
        0 -1 2 5.5110041284933686e-04</internalNodes>
      <leafValues>
        1. -1.</leafValues></_>
    <_>
      <internalNodes>
        0 -1 2 5.5110041284933686e-04</internalNodes>
      <leafValues>
        1. -1.</leafValues></_>
    <_>
      <internalNodes>
        0 -1 2 5.5110041284933686e-04</internalNodes>
      <leafValues>
        1. -1.</leafValues></_>
    <_>
      <internalNodes>
        0 -1 2 5.5110041284933686e-04</internalNodes>
      <leafValues>
        1. -1.</leafValues></_>
    <_>
      <internalNodes>
        0 -1 2 5.5110041284933686e-04</internalNodes>
      <leafValues>
        1. -1.</leafValues></_>
    <_>
      <internalNodes>
        0 -1 2 5.5110041284933686e-04</internalNodes>
      <leafValues>
        1. -1.</leafValues></_>
    <_>
      <internalNodes>
        0 -1 2 5.5110041284933686e-04</internalNodes>
      <leafValues>
        1. -1.</leafValues></_>
    <_>
      <internalNodes>
        0 -1 2 5.5110041284933686e-04</internalNodes>
      <leafValues>
        1. -1.</leafValues></_>
    <_>
      <internalNodes>
        0 -1 2 5.5110041284933686e-04</internalNodes>
      <leafValues>
        1. -1.</leafValues></_>
    <_>
      <internalNodes>
        0 -1 2 5.5110041284933686e-04</internalNodes>
      <leafValues>
        1. -1.</leafValues></_>
    <_>
      <internalNodes>
        0 -1 2 5.5110041284933686e-04</internalNodes>
      <leafValues>
        1. -1.</leafValues></_>
    <_>
      <internalNodes>
        0 -1 2 5.5110041284933686e-04</internalNodes>
      <leafValues>
        1. -1.</leafValues></_>
    <_>
      <internalNodes>
        0 -1 2 5.5110041284933686e-04</internalNodes>
      <leafValues>
        1. -1.</leafValues></_>
    <_>
      <internalNodes>
        0 -1 2 5.5110041284933686e-04</internalNodes>
      <leafValues>
        1. -1.</leafValues></_>
    <_>
      <internalNodes>
        0 -1 2 5.5110041284933686e-04</internalNodes>
      <leafValues>
        1. -1.</leafValues></_>
    <_>
      <internalNodes>
        0 -1 2 5.5110041284933686e-04</internalNodes>
      <leafValues>
        1. -1.</leafValues></_>
    <_>
      <internalNodes>
        0 -1 2 5.5110041284933686e-04</internalNodes>
      <leafValues>
        1. -1.</leafValues></_>
    <_>
      <internalNodes>
        0 -1 2 5.5110041284933686e-04</internalNodes>
      <leafValues>
        1. -1.</leafValues></_>
    <_>
      <internalNodes>
        0 -1 2 5.5110041284933686e-04</internalNodes>
      <leafValues>
        1. -1.</leafValues></_>
    <_>
      <internalNodes>
        0 -1 2 5.5110041284933686e-04</internalNodes>
      <leafValues>
        1. -1.</leafValues></_>
    <_>
      <internalNodes>
        0 -1 2 5.5110041284933686e-04</internalNodes>
      <leafValues>
        1. -1.</leafValues></_>
    <_>
      <internalNodes>
        0 -1 2 5.5110041284933686e-04</internalNodes>
      <leafValues>
        1. -1.</leafValues></_></weakClassifiers></stage8>
</opencv_storage>
