<?xml version="1.0"?>
<opencv_storage>
<stage7>
  <maxWeakCount>100</maxWeakCount>
  <stageThreshold>-100.</stageThreshold>
  <weakClassifiers>
    <_>
      <internalNodes>
        0 -1 2 2.7819201932288706e-04</internalNodes>
      <leafValues>
        1. -1.</leafValues></_>
    <_>
      <internalNodes>
        0 -1 2 2.7819201932288706e-04</internalNodes>
      <leafValues>
        1. -1.</leafValues></_>
    <_>
      <internalNodes>
        0 -1 2 2.7819201932288706e-04</internalNodes>
      <leafValues>
        1. -1.</leafValues></_>
    <_>
      <internalNodes>
        0 -1 2 2.7819201932288706e-04</internalNodes>
      <leafValues>
        1. -1.</leafValues></_>
    <_>
      <internalNodes>
        0 -1 2 2.7819201932288706e-04</internalNodes>
      <leafValues>
        1. -1.</leafValues></_>
    <_>
      <internalNodes>
        0 -1 2 2.7819201932288706e-04</internalNodes>
      <leafValues>
        1. -1.</leafValues></_>
    <_>
      <internalNodes>
        0 -1 2 2.7819201932288706e-04</internalNodes>
      <leafValues>
        1. -1.</leafValues></_>
    <_>
      <internalNodes>
        0 -1 2 2.7819201932288706e-04</internalNodes>
      <leafValues>
        1. -1.</leafValues></_>
    <_>
      <internalNodes>
        0 -1 2 2.7819201932288706e-04</internalNodes>
      <leafValues>
        1. -1.</leafValues></_>
    <_>
      <internalNodes>
        0 -1 2 2.7819201932288706e-04</internalNodes>
      <leafValues>
        1. -1.</leafValues></_>
    <_>
      <internalNodes>
        0 -1 2 2.7819201932288706e-04</internalNodes>
      <leafValues>
        1. -1.</leafValues></_>
    <_>
      <internalNodes>
        0 -1 2 2.7819201932288706e-04</internalNodes>
      <leafValues>
        1. -1.</leafValues></_>
    <_>
      <internalNodes>
        0 -1 2 2.7819201932288706e-04</internalNodes>
      <leafValues>
        1. -1.</leafValues></_>
    <_>
      <internalNodes>
        0 -1 2 2.7819201932288706e-04</internalNodes>
      <leafValues>
        1. -1.</leafValues></_>
    <_>
      <internalNodes>
        0 -1 2 2.7819201932288706e-04</internalNodes>
      <leafValues>
        1. -1.</leafValues></_>
    <_>
      <internalNodes>
        0 -1 2 2.7819201932288706e-04</internalNodes>
      <leafValues>
        1. -1.</leafValues></_>
    <_>
      <internalNodes>
        0 -1 2 2.7819201932288706e-04</internalNodes>
      <leafValues>
        1. -1.</leafValues></_>
    <_>
      <internalNodes>
        0 -1 2 2.7819201932288706e-04</internalNodes>
      <leafValues>
        1. -1.</leafValues></_>
    <_>
      <internalNodes>
        0 -1 2 2.7819201932288706e-04</internalNodes>
      <leafValues>
        1. -1.</leafValues></_>
    <_>
      <internalNodes>
        0 -1 2 2.7819201932288706e-04</internalNodes>
      <leafValues>
        1. -1.</leafValues></_>
    <_>
      <internalNodes>
        0 -1 2 2.7819201932288706e-04</internalNodes>
      <leafValues>
        1. -1.</leafValues></_>
    <_>
      <internalNodes>
        0 -1 2 2.7819201932288706e-04</internalNodes>
      <leafValues>
        1. -1.</leafValues></_>
    <_>
      <internalNodes>
        0 -1 2 2.7819201932288706e-04</internalNodes>
      <leafValues>
        1. -1.</leafValues></_>
    <_>
      <internalNodes>
        0 -1 2 2.7819201932288706e-04</internalNodes>
      <leafValues>
        1. -1.</leafValues></_>
    <_>
      <internalNodes>
        0 -1 2 2.7819201932288706e-04</internalNodes>
      <leafValues>
        1. -1.</leafValues></_>
    <_>
      <internalNodes>
        0 -1 2 2.7819201932288706e-04</internalNodes>
      <leafValues>
        1. -1.</leafValues></_>
    <_>
      <internalNodes>
        0 -1 2 2.7819201932288706e-04</internalNodes>
      <leafValues>
        1. -1.</leafValues></_>
    <_>
      <internalNodes>
        0 -1 2 2.7819201932288706e-04</internalNodes>
      <leafValues>
        1. -1.</leafValues></_>
    <_>
      <internalNodes>
        0 -1 2 2.7819201932288706e-04</internalNodes>
      <leafValues>
        1. -1.</leafValues></_>
    <_>
      <internalNodes>
        0 -1 2 2.7819201932288706e-04</internalNodes>
      <leafValues>
        1. -1.</leafValues></_>
    <_>
      <internalNodes>
        0 -1 2 2.7819201932288706e-04</internalNodes>
      <leafValues>
        1. -1.</leafValues></_>
    <_>
      <internalNodes>
        0 -1 2 2.7819201932288706e-04</internalNodes>
      <leafValues>
        1. -1.</leafValues></_>
    <_>
      <internalNodes>
        0 -1 2 2.7819201932288706e-04</internalNodes>
      <leafValues>
        1. -1.</leafValues></_>
    <_>
      <internalNodes>
        0 -1 2 2.7819201932288706e-04</internalNodes>
      <leafValues>
        1. -1.</leafValues></_>
    <_>
      <internalNodes>
        0 -1 2 2.7819201932288706e-04</internalNodes>
      <leafValues>
        1. -1.</leafValues></_>
    <_>
      <internalNodes>
        0 -1 2 2.7819201932288706e-04</internalNodes>
      <leafValues>
        1. -1.</leafValues></_>
    <_>
      <internalNodes>
        0 -1 2 2.7819201932288706e-04</internalNodes>
      <leafValues>
        1. -1.</leafValues></_>
    <_>
      <internalNodes>
        0 -1 2 2.7819201932288706e-04</internalNodes>
      <leafValues>
        1. -1.</leafValues></_>
    <_>
      <internalNodes>
        0 -1 2 2.7819201932288706e-04</internalNodes>
      <leafValues>
        1. -1.</leafValues></_>
    <_>
      <internalNodes>
        0 -1 2 2.7819201932288706e-04</internalNodes>
      <leafValues>
        1. -1.</leafValues></_>
    <_>
      <internalNodes>
        0 -1 2 2.7819201932288706e-04</internalNodes>
      <leafValues>
        1. -1.</leafValues></_>
    <_>
      <internalNodes>
        0 -1 2 2.7819201932288706e-04</internalNodes>
      <leafValues>
        1. -1.</leafValues></_>
    <_>
      <internalNodes>
        0 -1 2 2.7819201932288706e-04</internalNodes>
      <leafValues>
        1. -1.</leafValues></_>
    <_>
      <internalNodes>
        0 -1 2 2.7819201932288706e-04</internalNodes>
      <leafValues>
        1. -1.</leafValues></_>
    <_>
      <internalNodes>
        0 -1 2 2.7819201932288706e-04</internalNodes>
      <leafValues>
        1. -1.</leafValues></_>
    <_>
      <internalNodes>
        0 -1 2 2.7819201932288706e-04</internalNodes>
      <leafValues>
        1. -1.</leafValues></_>
    <_>
      <internalNodes>
        0 -1 2 2.7819201932288706e-04</internalNodes>
      <leafValues>
        1. -1.</leafValues></_>
    <_>
      <internalNodes>
        0 -1 2 2.7819201932288706e-04</internalNodes>
      <leafValues>
        1. -1.</leafValues></_>
    <_>
      <internalNodes>
        0 -1 2 2.7819201932288706e-04</internalNodes>
      <leafValues>
        1. -1.</leafValues></_>
    <_>
      <internalNodes>
        0 -1 2 2.7819201932288706e-04</internalNodes>
      <leafValues>
        1. -1.</leafValues></_>
    <_>
      <internalNodes>
        0 -1 2 2.7819201932288706e-04</internalNodes>
      <leafValues>
        1. -1.</leafValues></_>
    <_>
      <internalNodes>
        0 -1 2 2.7819201932288706e-04</internalNodes>
      <leafValues>
        1. -1.</leafValues></_>
    <_>
      <internalNodes>
        0 -1 2 2.7819201932288706e-04</internalNodes>
      <leafValues>
        1. -1.</leafValues></_>
    <_>
      <internalNodes>
        0 -1 2 2.7819201932288706e-04</internalNodes>
      <leafValues>
        1. -1.</leafValues></_>
    <_>
      <internalNodes>
        0 -1 2 2.7819201932288706e-04</internalNodes>
      <leafValues>
        1. -1.</leafValues></_>
    <_>
      <internalNodes>
        0 -1 2 2.7819201932288706e-04</internalNodes>
      <leafValues>
        1. -1.</leafValues></_>
    <_>
      <internalNodes>
        0 -1 2 2.7819201932288706e-04</internalNodes>
      <leafValues>
        1. -1.</leafValues></_>
    <_>
      <internalNodes>
        0 -1 2 2.7819201932288706e-04</internalNodes>
      <leafValues>
        1. -1.</leafValues></_>
    <_>
      <internalNodes>
        0 -1 2 2.7819201932288706e-04</internalNodes>
      <leafValues>
        1. -1.</leafValues></_>
    <_>
      <internalNodes>
        0 -1 2 2.7819201932288706e-04</internalNodes>
      <leafValues>
        1. -1.</leafValues></_>
    <_>
      <internalNodes>
        0 -1 2 2.7819201932288706e-04</internalNodes>
      <leafValues>
        1. -1.</leafValues></_>
    <_>
      <internalNodes>
        0 -1 2 2.7819201932288706e-04</internalNodes>
      <leafValues>
        1. -1.</leafValues></_>
    <_>
      <internalNodes>
        0 -1 2 2.7819201932288706e-04</internalNodes>
      <leafValues>
        1. -1.</leafValues></_>
    <_>
      <internalNodes>
        0 -1 2 2.7819201932288706e-04</internalNodes>
      <leafValues>
        1. -1.</leafValues></_>
    <_>
      <internalNodes>
        0 -1 2 2.7819201932288706e-04</internalNodes>
      <leafValues>
        1. -1.</leafValues></_>
    <_>
      <internalNodes>
        0 -1 2 2.7819201932288706e-04</internalNodes>
      <leafValues>
        1. -1.</leafValues></_>
    <_>
      <internalNodes>
        0 -1 2 2.7819201932288706e-04</internalNodes>
      <leafValues>
        1. -1.</leafValues></_>
    <_>
      <internalNodes>
        0 -1 2 2.7819201932288706e-04</internalNodes>
      <leafValues>
        1. -1.</leafValues></_>
    <_>
      <internalNodes>
        0 -1 2 2.7819201932288706e-04</internalNodes>
      <leafValues>
        1. -1.</leafValues></_>
    <_>
      <internalNodes>
        0 -1 2 2.7819201932288706e-04</internalNodes>
      <leafValues>
        1. -1.</leafValues></_>
    <_>
      <internalNodes>
        0 -1 2 2.7819201932288706e-04</internalNodes>
      <leafValues>
        1. -1.</leafValues></_>
    <_>
      <internalNodes>
        0 -1 2 2.7819201932288706e-04</internalNodes>
      <leafValues>
        1. -1.</leafValues></_>
    <_>
      <internalNodes>
        0 -1 2 2.7819201932288706e-04</internalNodes>
      <leafValues>
        1. -1.</leafValues></_>
    <_>
      <internalNodes>
        0 -1 2 2.7819201932288706e-04</internalNodes>
      <leafValues>
        1. -1.</leafValues></_>
    <_>
      <internalNodes>
        0 -1 2 2.7819201932288706e-04</internalNodes>
      <leafValues>
        1. -1.</leafValues></_>
    <_>
      <internalNodes>
        0 -1 2 2.7819201932288706e-04</internalNodes>
      <leafValues>
        1. -1.</leafValues></_>
    <_>
      <internalNodes>
        0 -1 2 2.7819201932288706e-04</internalNodes>
      <leafValues>
        1. -1.</leafValues></_>
    <_>
      <internalNodes>
        0 -1 2 2.7819201932288706e-04</internalNodes>
      <leafValues>
        1. -1.</leafValues></_>
    <_>
      <internalNodes>
        0 -1 2 2.7819201932288706e-04</internalNodes>
      <leafValues>
        1. -1.</leafValues></_>
    <_>
      <internalNodes>
        0 -1 2 2.7819201932288706e-04</internalNodes>
      <leafValues>
        1. -1.</leafValues></_>
    <_>
      <internalNodes>
        0 -1 2 2.7819201932288706e-04</internalNodes>
      <leafValues>
        1. -1.</leafValues></_>
    <_>
      <internalNodes>
        0 -1 2 2.7819201932288706e-04</internalNodes>
      <leafValues>
        1. -1.</leafValues></_>
    <_>
      <internalNodes>
        0 -1 2 2.7819201932288706e-04</internalNodes>
      <leafValues>
        1. -1.</leafValues></_>
    <_>
      <internalNodes>
        0 -1 2 2.7819201932288706e-04</internalNodes>
      <leafValues>
        1. -1.</leafValues></_>
    <_>
      <internalNodes>
        0 -1 2 2.7819201932288706e-04</internalNodes>
      <leafValues>
        1. -1.</leafValues></_>
    <_>
      <internalNodes>
        0 -1 2 2.7819201932288706e-04</internalNodes>
      <leafValues>
        1. -1.</leafValues></_>
    <_>
      <internalNodes>
        0 -1 2 2.7819201932288706e-04</internalNodes>
      <leafValues>
        1. -1.</leafValues></_>
    <_>
      <internalNodes>
        0 -1 2 2.7819201932288706e-04</internalNodes>
      <leafValues>
        1. -1.</leafValues></_>
    <_>
      <internalNodes>
        0 -1 2 2.7819201932288706e-04</internalNodes>
      <leafValues>
        1. -1.</leafValues></_>
    <_>
      <internalNodes>
        0 -1 2 2.7819201932288706e-04</internalNodes>
      <leafValues>
        1. -1.</leafValues></_>
    <_>
      <internalNodes>
        0 -1 2 2.7819201932288706e-04</internalNodes>
      <leafValues>
        1. -1.</leafValues></_>
    <_>
      <internalNodes>
        0 -1 2 2.7819201932288706e-04</internalNodes>
      <leafValues>
        1. -1.</leafValues></_>
    <_>
      <internalNodes>
        0 -1 2 2.7819201932288706e-04</internalNodes>
      <leafValues>
        1. -1.</leafValues></_>
    <_>
      <internalNodes>
        0 -1 2 2.7819201932288706e-04</internalNodes>
      <leafValues>
        1. -1.</leafValues></_>
    <_>
      <internalNodes>
        0 -1 2 2.7819201932288706e-04</internalNodes>
      <leafValues>
        1. -1.</leafValues></_>
    <_>
      <internalNodes>
        0 -1 2 2.7819201932288706e-04</internalNodes>
      <leafValues>
        1. -1.</leafValues></_>
    <_>
      <internalNodes>
        0 -1 2 2.7819201932288706e-04</internalNodes>
      <leafValues>
        1. -1.</leafValues></_>
    <_>
      <internalNodes>
        0 -1 2 2.7819201932288706e-04</internalNodes>
      <leafValues>
        1. -1.</leafValues></_>
    <_>
      <internalNodes>
        0 -1 2 2.7819201932288706e-04</internalNodes>
      <leafValues>
        1. -1.</leafValues></_>
    <_>
      <internalNodes>
        0 -1 2 2.7819201932288706e-04</internalNodes>
      <leafValues>
        1. -1.</leafValues></_></weakClassifiers></stage7>
</opencv_storage>
